-5.200000000000123634e+00
-5.200000000000049027e+00
-5.199999999999956657e+00
-5.200000000000219558e+00
-5.100000000000173728e+00
-5.199999999999963762e+00
-5.199999999999990408e+00
-4.200000000000118305e+00
-5.200000000000336797e+00
-5.099999999999980105e+00
-5.200000000000059686e+00
-1.200000000000132516e+00
-5.099999999999960565e+00
-5.100000000000115108e+00
-3.900000000000035882e+00
-5.299999999999956302e+00
-5.199999999999963762e+00
-5.200000000000182254e+00
-5.000000000000150990e+00
-3.900000000000046541e+00
-5.200000000000084555e+00
-3.600000000000122213e+00
-5.000000000000026645e+00
-4.800000000000055778e+00
-5.099999999999960565e+00
-5.100000000000036948e+00
-5.099999999999960565e+00
-5.100000000000102673e+00
-5.000000000000206057e+00
-5.299999999999959854e+00
-4.099999999999971223e+00
-5.000000000000117240e+00
-5.200000000000230216e+00
-5.200000000000059686e+00
-5.000000000000037303e+00
-4.899999999999977263e+00
-5.100000000000036948e+00
-5.299999999999959854e+00
-5.200000000000091660e+00
-5.199999999999972644e+00
-1.800000000000132161e+00
-2.500000000000234479e+00
7.999999999998710365e-01
-5.100000000000019185e+00
-5.099999999999976552e+00
1.260000000000165699e+01
-2.500000000000140332e+00
1.599999999999875300e+00
-3.999999999999808153e-01
-2.000000000000031974e+00
-5.000000000000186517e+00
-3.600000000000061817e+00
-5.100000000000171951e+00
-4.400000000000025224e+00
-8.000000000001303846e-01
-5.199999999999963762e+00
9.999999999989128696e-02
-2.300000000000132161e+00
-5.100000000000067146e+00
-2.000000000000037303e+00
-2.400000000000082068e+00
-2.100000000000099121e+00
-2.799999999999972289e+00
-3.600000000000099121e+00
-3.900000000000146017e+00
-5.199999999999963762e+00
-1.900000000000092726e+00
-4.000000000000044409e+00
-3.900000000000037659e+00
-5.000000000000037303e+00
-3.600000000000024514e+00
-8.000000000000309086e-01
-4.699999999999969091e+00
-4.000000000000282441e+00
-4.299999999999966960e+00
1.090000000000030411e+01
5.699999999999915801e+00
1.260000000000061249e+01
-5.099999999999960565e+00
1.899999999999884892e+00
3.300000000000318678e+00
8.000000000000149214e-01
-4.500000000000030198e+00
1.999999999999690914e-01
-5.100000000000028066e+00
-4.399999999999970157e+00
6.100000000000354916e+00
1.099999999999994138e+01
3.999999999998955502e-01
-2.800000000000132161e+00
-1.599999999999832667e+00
-5.100000000000152411e+00
1.600000000000068923e+00
-5.199999999999960210e+00
4.799999999999945643e+00
8.600000000000136424e+00
5.799999999999949196e+00
9.800000000000185452e+00
-4.300000000000054001e+00
1.099999999999880629e+00
2.199999999999899813e+00
