-5.200000000000123634e+00
-5.200000000000049027e+00
-5.199999999999956657e+00
-5.200000000000219558e+00
-5.100000000000173728e+00
-5.199999999999963762e+00
-5.199999999999990408e+00
-4.200000000000118305e+00
-5.200000000000336797e+00
-5.099999999999980105e+00
-5.200000000000059686e+00
-1.200000000000132516e+00
-5.099999999999960565e+00
-5.100000000000115108e+00
-3.900000000000035882e+00
-5.299999999999956302e+00
-5.199999999999963762e+00
-5.200000000000182254e+00
-5.000000000000150990e+00
-3.900000000000046541e+00
-5.200000000000084555e+00
-3.600000000000122213e+00
-5.000000000000026645e+00
-4.800000000000055778e+00
-5.099999999999960565e+00
-5.100000000000036948e+00
-5.099999999999960565e+00
-5.100000000000102673e+00
-5.000000000000206057e+00
-5.299999999999959854e+00
-4.099999999999971223e+00
-5.000000000000117240e+00
-5.200000000000230216e+00
-5.200000000000059686e+00
-5.000000000000037303e+00
-4.899999999999977263e+00
-5.100000000000036948e+00
-5.299999999999959854e+00
-5.200000000000091660e+00
-5.199999999999972644e+00
-1.800000000000132161e+00
-2.500000000000234479e+00
7.999999999998710365e-01
-5.100000000000019185e+00
-5.099999999999976552e+00
1.260000000000165699e+01
-2.500000000000140332e+00
1.599999999999875300e+00
-3.999999999999808153e-01
-2.000000000000031974e+00
-5.000000000000186517e+00
-3.600000000000061817e+00
-5.100000000000171951e+00
-4.400000000000025224e+00
-8.000000000001303846e-01
-5.199999999999963762e+00
9.999999999989128696e-02
-2.300000000000132161e+00
-5.100000000000067146e+00
-2.000000000000037303e+00
-2.400000000000082068e+00
-2.100000000000099121e+00
-2.799999999999972289e+00
-3.600000000000099121e+00
-3.900000000000146017e+00
-5.199999999999963762e+00
-1.900000000000092726e+00
-4.000000000000044409e+00
-3.900000000000037659e+00
-5.000000000000037303e+00
-3.600000000000024514e+00
-8.000000000000309086e-01
-4.699999999999969091e+00
-4.000000000000282441e+00
-4.299999999999966960e+00
1.090000000000030411e+01
5.699999999999915801e+00
1.260000000000061249e+01
-5.099999999999960565e+00
1.899999999999884892e+00
3.300000000000318678e+00
8.000000000000149214e-01
-4.500000000000030198e+00
1.999999999999690914e-01
-5.100000000000028066e+00
-4.399999999999970157e+00
6.100000000000354916e+00
1.099999999999994138e+01
3.999999999998955502e-01
-2.800000000000132161e+00
-1.599999999999832667e+00
-5.100000000000152411e+00
1.600000000000068923e+00
-5.199999999999960210e+00
4.799999999999945643e+00
8.600000000000136424e+00
5.799999999999949196e+00
9.800000000000185452e+00
-4.300000000000054001e+00
1.099999999999880629e+00
2.199999999999899813e+00
-3.599999999999990763e+00
1.899999999999890221e+00
8.399999999999872458e+00
2.099999999999848654e+00
3.299999999999801759e+00
1.200000000000800426e+00
6.999999999998891553e-01
-1.500000000000012434e+00
7.900000000000241940e+00
1.089999999999991687e+01
1.069999999999994245e+01
9.800000000000297362e+00
-5.099999999999960565e+00
3.240000000000163283e+01
4.400000000000707345e+00
1.000000000000029665e+01
-3.000000000002067679e-01
3.399999999999943512e+00
6.549999999999675993e+01
-4.400000000000151346e+00
1.010000000000049880e+01
2.999999999999893419e+00
1.790000000000045333e+01
2.499999999999984013e+00
6.730000000000148930e+01
1.940000000000161151e+01
1.930000000000038796e+01
1.740000000000100400e+01
1.890000000000066294e+01
-2.000000000001396216e-01
2.230000000000053717e+01
6.099999999999875300e+00
2.390000000000034674e+01
2.960000000000054854e+01
7.800000000000286704e+00
6.479999999999887450e+01
1.130000000000060822e+01
3.460000000000121645e+01
3.000000000000039080e+01
2.144999999999923546e+02
-5.100000000000216360e+00
2.370000000000056417e+01
6.850000000000073896e+01
3.480000000000104166e+01
1.010999999999954326e+02
6.449999999999992895e+01
9.099999999999567990e+01
4.799999999999892353e+00
8.079999999999847660e+01
2.890000000000038582e+01
2.300000000000089528e+01
3.410000000000069775e+01
1.650000000000118661e+01
1.349999999999994671e+01
2.043999999999923318e+02
6.380000000000060822e+01
1.120000000000029416e+01
2.170000000000083418e+01
1.434999999999932641e+02
1.630000000000048388e+01
3.790000000000048175e+01
1.460999999999918941e+02
7.869999999999895124e+01
6.509999999999935483e+01
6.119999999999879492e+01
7.299999999999865707e+00
1.031999999999988944e+02
-3.000000000000841993e-01
1.030000000000031868e+01
6.730000000000016769e+01
6.919999999999976126e+01
1.370999999999967827e+02
1.807999999999935881e+02
1.169999999999995843e+01
7.360000000000061959e+01
1.582999999999957481e+02
9.899999999999932854e+00
3.030000000000011084e+01
3.640000000000034674e+01
2.510000000000047748e+01
1.342999999999943839e+02
1.550000000000032685e+01
2.181999999999941053e+02
4.250000000000103739e+01
3.260000000000018616e+01
1.348999999999949182e+02
4.120000000000040075e+01
3.080000000000045901e+01
1.413999999999976751e+02
1.380000000000032401e+01
1.303999999999992951e+02
2.518999999999947477e+02
2.249999999999941735e+02
2.169999999999973284e+02
2.699999999999915801e+00
6.470000000000018758e+01
6.010000000000059117e+01
5.980000000000043769e+01
1.033999999999986130e+02
6.339999999999874092e+01
1.973999999999973625e+02
3.750000000000019185e+01
4.960000000000123066e+01
1.730999999999972374e+02
1.629999999999965326e+02
2.330000000000027427e+01
1.067999999999978229e+02
6.329999999999921556e+01
1.599999999999843325e+00
9.639999999999884039e+01
1.254999999999991616e+02
7.439999999999976410e+01
7.559999999999884324e+01
1.980000000000024940e+01
1.480000000000046256e+01
5.570000000000049312e+01
1.845999999999997669e+02
4.220000000000029416e+01
7.769999999999845386e+01
1.460999999999986017e+02
1.719999999999959357e+02
2.017999999999942418e+02
3.980000000000016058e+01
9.149999999999745626e+01
1.776999999999972033e+02
3.080000000000033111e+01
1.825999999999973511e+02
2.120999999999978058e+02
1.236999999999968622e+02
2.114999999999963620e+02
7.550000000000019895e+01
4.699999999999905143e+00
6.819999999999869544e+01
2.169999999999944009e+02
2.607999999999952365e+02
2.393999999999962824e+02
7.599999999999843325e+00
3.660000000000071196e+01
6.899999999999887734e+01
1.680999999999958447e+02
1.878999999999941508e+02
2.546999999999980560e+02
2.452999999999970839e+02
1.040999999999972090e+02
1.135999999999953332e+02
4.180000000000073612e+01
1.606999999999984254e+02
1.541999999999979138e+02
2.243999999999963109e+02
2.378999999999959414e+02
1.179999999999985505e+02
1.124999999999977973e+02
3.970000000000050733e+01
2.051999999999985675e+02
4.770000000000043627e+01
1.052999999999971266e+02
2.488999999999960551e+02
6.110000000000026432e+01
1.090000000000050306e+01
2.358999999999967940e+02
2.338999999999966519e+02
2.410999999999968963e+02
1.095999999999979622e+02
7.020000000000004547e+01
1.521999999999989086e+02
2.363999999999973909e+02
2.340000000000034674e+01
1.677999999999977945e+02
2.133999999999967372e+02
1.227999999999985619e+02
2.064999999999975557e+02
2.464999999999969305e+02
1.248999999999970782e+02
2.682999999999976239e+02
2.100999999999972943e+02
2.580999999999979764e+02
3.460000000000067644e+01
2.734999999999980105e+02
2.225999999999982606e+02
3.950000000000036238e+01
2.530000000000097060e+01
2.350999999999969248e+02
2.486999999999977717e+02
6.360000000000042064e+01
2.516999999999958391e+02
2.547999999999946112e+02
2.529999999999980673e+02
1.968999999999969361e+02
3.650000000000019185e+01
2.386999999999981128e+02
1.974999999999983515e+02
2.206999999999981981e+02
2.214999999999946567e+02
2.017999999999990450e+02
5.999999999999914735e+00
2.558999999999964530e+02
2.463999999999982151e+02
2.238999999999969930e+02
2.498999999999982720e+02
6.599999999999880629e+00
4.190000000000006963e+01
1.335999999999952479e+02
2.559999999999970441e+02
6.199999999999979750e+00
3.260000000000059117e+01
2.907999999999974534e+02
7.279999999999861870e+01
2.326999999999972033e+02
2.276999999999970044e+02
2.600999999999934289e+02
2.830000000000032401e+01
8.059999999999877218e+01
2.353999999999969361e+02
9.459999999999961062e+01
2.369999999999979536e+02
7.499999999999801048e+01
2.890000000000024016e+01
1.844999999999977263e+02
1.429999999999974989e+02
2.521999999999953275e+02
2.222999999999982492e+02
2.295999999999965837e+02
2.545999999999976353e+02
2.418999999999964245e+02
1.192999999999963165e+02
1.601999999999983970e+02
2.480999999999974079e+02
1.636999999999972601e+02
1.690999999999982037e+02
2.178999999999950035e+02
4.999999999999909406e+00
7.410000000000032117e+01
2.338999999999977035e+02
1.321999999999971749e+02
2.583999999999962824e+02
2.645999999999967258e+02
8.009999999999865850e+01
2.285999999999956742e+02
2.163999999999984141e+02
2.414999999999988631e+02
1.375999999999976069e+02
2.263999999999981583e+02
1.843999999999956572e+02
2.422999999999975955e+02
2.484999999999977547e+02
2.367999999999968281e+02
2.313999999999979877e+02
1.281999999999953843e+02
2.594999999999971578e+02
2.085999999999964132e+02
1.249999999999996021e+02
5.900000000000082423e+01
1.295999999999976922e+02
2.025999999999984595e+02
1.543999999999974193e+02
2.144999999999939746e+02
8.389999999999824354e+01
2.363999999999977035e+02
2.516999999999978854e+02
2.490999999999970953e+02
2.208999999999971635e+02
1.179999999999996589e+02
1.872999999999962597e+02
2.372999999999943839e+02
1.337999999999992156e+02
2.692999999999966576e+02
2.128999999999975046e+02
2.541999999999968054e+02
2.360999999999942531e+02
2.444999999999975273e+02
9.749999999999712941e+01
2.189999999999974136e+02
2.245999999999970385e+02
2.530999999999979764e+02
7.939999999999864144e+01
2.164999999999966462e+02
1.119999999999983089e+02
2.410999999999982890e+02
2.671999999999970328e+02
2.303999999999971067e+02
1.064999999999999858e+02
2.123999999999974193e+02
2.510000000000017906e+01
2.567999999999959755e+02
2.596999999999961801e+02
2.519999999999947136e+02
2.355999999999969532e+02
2.586999999999975444e+02
2.402999999999974818e+02
3.123999999999974762e+02
8.849999999999832312e+01
1.470000000000064233e+01
2.547999999999968850e+02
1.114999999999976410e+02
8.979999999999867555e+01
2.268999999999961688e+02
2.317999999999976808e+02
1.757999999999981924e+02
2.232999999999962029e+02
2.209999999999973284e+02
