-4.499999999999962697e+00
4.399999999999900879e+00
-5.000000000000072831e+00
-5.000000000000001776e+00
-5.299999999999956302e+00
-5.199999999999967315e+00
-9.000000000000074607e-01
-5.199999999999979750e+00
-5.200000000000027711e+00
-5.099999999999960565e+00
-5.199999999999963762e+00
-5.199999999999970868e+00
-5.000000000000008882e+00
-5.100000000000106226e+00
-5.099999999999971223e+00
-3.799999999999974065e+00
-5.100000000000131095e+00
-5.000000000000058620e+00
-2.300000000000011369e+00
-5.299999999999986500e+00
9.999999999988062882e-02
2.199999999999921130e+00
-4.899999999999964828e+00
-5.200000000000022382e+00
-5.100000000000031619e+00
-2.900000000000215294e+00
-5.200000000000004619e+00
-5.199999999999960210e+00
-4.100000000000076028e+00
-5.000000000000033751e+00
-5.000000000000014211e+00
-5.099999999999960565e+00
-3.100000000000074252e+00
-5.199999999999974420e+00
-1.700000000000251532e+00
-5.199999999999963762e+00
-5.000000000000122569e+00
-5.099999999999980105e+00
-5.099999999999971223e+00
-4.500000000000001776e+00
-5.200000000000022382e+00
-5.199999999999963762e+00
-3.197442310920450836e-14
-4.599999999999955236e+00
-1.900000000000162004e+00
9.999999999999840128e-01
-2.800000000000149925e+00
-4.399999999999982592e+00
-2.700000000000096989e+00
-5.000000000000058620e+00
-5.199999999999995737e+00
-5.099999999999960565e+00
1.240000000000010338e+01
1.000000000000550671e+00
-2.400000000000130029e+00
-3.599999999999988987e+00
-5.299999999999975842e+00
-5.000000000000172307e+00
-5.100000000000205702e+00
-3.400000000000058975e+00
-1.065814103640150279e-13
-5.000000000000039080e+00
-5.099999999999960565e+00
-5.099999999999972999e+00
6.299999999999908340e+00
-3.200000000000086331e+00
5.199999999999969091e+00
-3.800000000000073541e+00
7.199999999999905143e+00
-2.900000000000135358e+00
-4.300000000000110845e+00
-4.499999999999963585e+00
-4.899999999999964828e+00
-3.300000000000055778e+00
1.099999999999864642e+00
2.999999999999893419e+00
-4.300000000000053113e+00
8.399999999999948841e+00
-1.300000000000062883e+00
-1.200000000000112976e+00
-9.000000000000820677e-01
3.399999999999922196e+00
-2.200000000000112976e+00
-4.100000000000044054e+00
1.999999999999655387e-01
-2.900000000000172662e+00
-5.199999999999972644e+00
-1.000000000000079936e+00
-2.400000000000103384e+00
3.099999999999866418e+00
-1.119104808822157793e-13
-1.700000000000081002e+00
-2.000000000000293099e+00
-3.200000000000047251e+00
3.730000000000232063e+01
7.899999999999927525e+00
4.619999999999977547e+01
1.090000000000006608e+01
7.099999999999912603e+00
2.900000000000053646e+00
-2.200000000000081002e+00
