1.799999999999860378e+00
-3.000000000000079936e+00
-2.500000000000063949e+00
-5.199999999999964650e+00
-5.199999999999994849e+00
-5.000000000000111910e+00
-1.600000000000125766e+00
-5.099999999999971223e+00
-5.299999999999966960e+00
-4.000000000000042633e+00
-4.599999999999965894e+00
-5.199999999999957545e+00
-5.099999999999999645e+00
-5.100000000000036948e+00
-5.100000000000157740e+00
-2.900000000000268585e+00
1.399999999999943512e+00
-1.200000000000096989e+00
-5.299999999999982947e+00
-5.299999999999981171e+00
-8.000000000001374900e-01
-5.299999999999956302e+00
-5.000000000000099476e+00
-5.100000000000067146e+00
-5.100000000000039613e+00
-1.000000000002589928e-01
-3.300000000000093081e+00
-5.200000000000054357e+00
-5.100000000000012079e+00
-5.099999999999960565e+00
-5.100000000000243006e+00
-1.100000000000088463e+00
-3.700000000000123634e+00
-5.000000000000074607e+00
-5.200000000000033040e+00
-5.099999999999985434e+00
-3.500000000000035527e+00
-1.600000000000108002e+00
-5.199999999999963762e+00
1.499999999999978684e+00
-3.700000000000208900e+00
-2.200000000000096989e+00
-4.200000000000081002e+00
-5.000000000000042633e+00
1.099999999999976552e+00
-4.700000000000056133e+00
-1.299999999999977618e+00
-1.800000000000073541e+00
-5.299999999999956302e+00
-9.000000000001033840e-01
-1.700000000000081002e+00
1.099999999999971223e+00
-5.100000000000052935e+00
-5.200000000000134293e+00
-4.100000000000001421e+00
-7.000000000000330402e-01
6.199999999999862510e+00
7.100000000000848743e+00
-2.600000000000088463e+00
-8.999999999999754863e-01
-2.400000000000114042e+00
-8.000000000000362377e-01
3.899999999999927525e+00
-4.399999999999970157e+00
-4.099999999999971223e+00
-5.100000000000221689e+00
9.999999999999023004e-01
5.099999999999837996e+00
1.999999999999211298e-01
7.799999999999924327e+00
9.999999999999957367e+00
-3.999999999999968026e+00
1.260000000000142961e+01
5.599999999999891287e+00
-3.000000000000074607e+00
7.499999999999888090e+00
9.399999999999906208e+00
2.899999999999874234e+00
1.799999999999934985e+00
2.510000000000142961e+01
-1.600000000000038725e+00
-1.100000000000136424e+00
7.900000000000289901e+00
1.850000000000012790e+01
3.500000000000399680e+00
-2.700000000000081002e+00
2.131628207280300558e-14
7.500000000001023182e+00
5.100000000000248335e+00
1.499999999999882760e+00
8.899999999999922196e+00
1.210000000000020037e+01
-2.300000000000103739e+00
9.999999999983444354e-02
6.969999999999650697e+01
1.160000000000061249e+01
2.899999999999900879e+00
1.500000000000053291e+01
4.799999999999871036e+00
-2.799999999999977618e+00
9.099999999999882405e+00
-4.000000000000074607e+00
2.399999999999836930e+00
8.699999999999931788e+00
6.100000000000067146e+00
1.100000000000390443e+00
4.100000000000822098e+00
1.210000000000044906e+01
6.079999999999984794e+01
1.070000000000083773e+01
1.540000000000029701e+01
3.180000000000026006e+01
-2.100000000000195044e+00
4.430000000000073612e+01
1.099999999999993072e+01
3.300000000000040501e+01
1.210000000000032117e+01
2.100000000000014921e+01
-4.200000000000155609e+00
9.999999999999733546e-01
4.230000000000041638e+01
1.216999999999937927e+02
9.859999999999621423e+01
9.999999999984865440e-02
9.859999999999750742e+01
4.660000000000036380e+01
1.662999999999957481e+02
1.596999999999923148e+02
7.449999999999829470e+01
8.499999999999893419e+00
4.399999999999780087e+00
1.760000000000043485e+01
1.936999999999886199e+02
9.669999999999996021e+01
3.880000000000006111e+01
7.080000000000171667e+01
6.769999999999910756e+01
2.083999999999930708e+02
8.389999999999993463e+01
2.433999999999934118e+02
3.110000000000014353e+01
7.089999999999795932e+01
2.670000000000010942e+01
8.179999999999785132e+01
5.190000000000081570e+01
1.029999999999994884e+02
8.299999999999961631e+00
7.349999999999997158e+01
2.118999999999940087e+02
1.460000000000036025e+01
5.570000000000031548e+01
8.699999999999910472e+00
1.240000000000031122e+01
7.390000000000054570e+01
5.240000000000098623e+01
3.170000000000071338e+01
3.620000000000038654e+01
3.120000000000087681e+01
5.120000000000080576e+01
1.373999999999979877e+02
7.699999999999869260e+01
4.460000000000006537e+01
9.749999999999752731e+01
2.039999999999976410e+02
3.080000000000016058e+01
1.267999999999987892e+02
1.830999999999933721e+02
7.699999999999887734e+01
6.549999999999909051e+01
1.990000000000129887e+01
1.518999999999981014e+02
1.704999999999997158e+02
1.590000000000030056e+01
1.738999999999971351e+02
1.043999999999984141e+02
3.399999999999826272e+00
2.200999999999966974e+02
2.191999999999962370e+02
2.567999999999954071e+02
8.499999999999893419e+00
7.919999999999710383e+01
6.159999999999743636e+01
3.660000000000029274e+01
1.447999999999976524e+02
2.451999999999964359e+02
2.311999999999954980e+02
1.461999999999970612e+02
1.253999999999983856e+02
2.311999999999983686e+02
2.398999999999973056e+02
1.611999999999982265e+02
2.544999999999974989e+02
2.185999999999981753e+02
1.023999999999960551e+02
3.580000000000055138e+01
2.529999999999973852e+02
3.240000000000033964e+01
9.259999999999847375e+01
2.466999999999978002e+02
2.359999999999988063e+02
2.045999999999937984e+02
3.880000000000067928e+01
2.574999999999975557e+02
8.849999999999857891e+01
1.173999999999971919e+02
2.328999999999952024e+02
1.327999999999950660e+02
3.460000000000042064e+01
3.560000000000006537e+01
1.765999999999961574e+02
1.500000000000002132e+01
1.458999999999976183e+02
1.490000000000006253e+01
1.400000000000030553e+01
2.530999999999975216e+02
8.829999999999850502e+01
1.390000000000033964e+01
4.080000000000033822e+01
8.369999999999944862e+01
2.900000000000012079e+01
1.230999999999988432e+02
3.240000000000044622e+01
3.490000000000100044e+01
1.899999999999976694e+02
1.694999999999982947e+02
1.310000000000033893e+01
2.770000000000050022e+01
1.518999999999984425e+02
1.471999999999971465e+02
2.269999999999980105e+02
2.071999999999976581e+02
2.478999999999971919e+02
2.460000000000026432e+01
2.166999999999999318e+02
1.146999999999981128e+02
1.873999999999985846e+02
2.103999999999975046e+02
7.559999999999958220e+01
1.241999999999983402e+02
2.316999999999986244e+02
3.410000000000034959e+01
6.369999999999818385e+01
1.669999999999985221e+02
2.688999999999972488e+02
9.589999999999865565e+01
2.451999999999971465e+02
2.027999999999991303e+02
1.891999999999976012e+02
2.160999999999971237e+02
3.620000000000051443e+01
2.593999999999978172e+02
2.398999999999965951e+02
2.358999999999970782e+02
2.750999999999968963e+02
2.549999999999976694e+02
2.620999999999977490e+02
2.367999999999967997e+02
2.431999999999980560e+02
2.313999999999967372e+02
1.422999999999991019e+02
2.177999999999971692e+02
2.498999999999972488e+02
2.697999999999970555e+02
2.330000000000022453e+01
2.719999999999970441e+02
2.741999999999985107e+02
1.768999999999977604e+02
1.819999999999997158e+02
2.310999999999985448e+02
1.748999999999962256e+02
9.249999999999876366e+01
-1.300000000000169464e+00
1.930000000000077875e+01
7.939999999999628244e+01
1.406999999999984539e+02
9.999999999999920064e+00
4.310000000000034248e+01
1.077999999999985334e+02
2.702999999999971124e+02
1.044999999999986926e+02
1.463999999999967372e+02
2.400999999999980332e+02
2.436999999999949296e+02
2.829999999999975557e+02
2.579999999999978968e+02
9.359999999999823217e+01
2.712999999999966008e+02
4.730000000000045191e+01
1.692999999999979082e+02
2.535999999999958163e+02
3.830000000000006821e+01
1.057999999999982776e+02
2.208999999999972488e+02
2.790000000000006963e+01
2.602999999999962029e+02
2.607999999999965439e+02
3.710000000000016485e+01
1.049999999999963194e+02
2.400999999999961005e+02
2.252999999999984482e+02
2.258999999999972488e+02
